digraph Tree {
node [shape=box, style="filled", color="black"] ;
0 [label="x2 <= 0.7757\nentropy = 1.0\nsamples = 200\nvalue = [100, 100]", fillcolor="#e5813900"] ;
1 [label="x1 <= 2.3923\nentropy = 0.4006\nsamples = 88\nvalue = [81, 7]", fillcolor="#e58139e9"] ;
0 -> 1 [labeldistance=2.5, labelangle=45, headlabel="True"] ;
2 [label="x1 <= 1.2779\nentropy = 0.2738\nsamples = 85\nvalue = [81, 4]", fillcolor="#e58139f2"] ;
1 -> 2 ;
3 [label="entropy = 0.1068\nsamples = 71\nvalue = [70, 1]", fillcolor="#e58139fb"] ;
2 -> 3 ;
4 [label="entropy = 0.7496\nsamples = 14\nvalue = [11, 3]", fillcolor="#e58139b9"] ;
2 -> 4 ;
5 [label="entropy = 0.0\nsamples = 3\nvalue = [0, 3]", fillcolor="#399de5ff"] ;
1 -> 5 ;
6 [label="x1 <= 1.0461\nentropy = 0.6569\nsamples = 112\nvalue = [19, 93]", fillcolor="#399de5cb"] ;
0 -> 6 [labeldistance=2.5, labelangle=-45, headlabel="False"] ;
7 [label="x2 <= 2.0682\nentropy = 0.9995\nsamples = 37\nvalue = [19, 18]", fillcolor="#e581390d"] ;
6 -> 7 ;
8 [label="entropy = 0.9294\nsamples = 29\nvalue = [19, 10]", fillcolor="#e5813979"] ;
7 -> 8 ;
9 [label="entropy = 0.0\nsamples = 8\nvalue = [0, 8]", fillcolor="#399de5ff"] ;
7 -> 9 ;
10 [label="entropy = 0.0\nsamples = 75\nvalue = [0, 75]", fillcolor="#399de5ff"] ;
6 -> 10 ;
}